0.817124098618
-0.284835944706
0.718040346274
-0.597996396448
-0.605923294323
0.355991893069
0.235867564182
0.026748724796
-0.081407034609
-0.595493882375
-0.167416774604
-0.155848445049
-0.158043495398
-0.00759168014646
-0.531534639658
-0.0340947769258
-0.57695373845
0.397878031751
0.847117715241
-0.391311369264
-0.802613632576
0.517772215207
0.308100405475
0.719196172407
0.316736820447
0.743538708516
-0.144033685205
0.0619930241007
0.557415757467
0.181841951768
0.372834822734
-0.470505857042
-0.198909677279
-0.121415549761
-0.787307101298
-0.124375967761
0.701351143652
0.862019251743
-0.501684686682
-0.0733142919566
-0.220678425071
0.374023960693
0.176680964285
-0.432824518445
-0.223355987535
-0.0428182439931
-0.388707395202
-0.0182925856654
-0.250726501859
0.89686542144
0.501502605476
0.743788697207
0.33932010444
0.512576574012
-0.158584822093
-0.362283797151
0.0778628307613
-0.578790780575
0.894778008113
0.444793186461
-0.783306674441
0.805639113435
0.291625353676
-0.00939669385591
0.215853311734
0.456778393864
0.293520233366
0.297531853573
-0.0988955737605
0.727895393416
-0.477538745965
-0.308691322227
-0.675664588201
0.0603595383042
-0.24937354219
-1.0
-0.438116781288
-0.809996587108
0.0623136838969
-0.0310929800174
-0.0485494159592
0.331226470459
-0.99937694716
0.420762294919
-0.961136586294
-0.585894582938
0.390123201033
-0.983312591356
0.634129400315
0.79587325596
-0.631428738234
0.0916829883524
-0.336153274611
-0.0353440766452
0.133605983434
-0.221571478849
-0.0115744579523
0.552220396241
0.17636726617
0.139349692695
-0.658819381395
-0.338004849125
0.141266295305
0.471651674037
-0.586756078815
0.158314525679
-0.654007904281
-0.262030822836
-0.146847692424
0.924728661318
0.369821206849
0.687287505298
0.965785334614
-0.995040885213
0.99623470609
-0.614483887155
0.433032050062
-0.233102548099
0.26169446194
-0.330824244672
0.448120306089
1.0
0.408502883798
-0.597064580118
-0.33649228544
-0.983667924305
-0.792593716582
-0.762424302318
-0.448572900028
0.3981855428
0.38797807813
-0.0224353749087
-0.808199567861
-0.286600637834
0.168311319352
-0.197419225271
-0.816388556198
0.195645862602
-0.872290105786
-1.0
-0.456077177671
-0.0972887581284
-0.100883802234
0.55194539138
0.492239408731
-0.614741124194
0.259824590496
1.0
-0.114354859867
-0.233235859087
-0.553262523931
-0.242036707203
0.138487358204
-0.146485623853
0.239773422761
-0.0196876308608
0.684778115272
0.65493981193
0.883924691497
-0.347845994112
-0.0121644877335
0.600269729309
0.563155599202
0.335999653074
0.662535009847
0.22113336636
-0.427078561531
0.141750739522
-0.202623771475
0.289164777632
0.08449771377
0.814055900747
0.452557143495
-0.852249190499
-0.0440887733507
-0.394589962448
0.0447055346801
-0.802954138453
0.0653603063569
0.160134145771
0.778272247466
-0.501573365214
-0.457846242698
-0.935770910989
0.647535322666
1.0
0.342412150301
0.240181217204
0.252418539487
0.782433219473
-0.208381388818
0.591003302388
0.675725372494
0.0569381961587
-0.0829760570493
0.85812090397
0.772001420476
0.112836737937
-0.253992962522
-0.318255509245
-0.999990222279
1.0
0.648491665819
-0.00379994841909
0.223877724613
-0.0955713028383
0.259213088609
-0.316443025332
0.246987240687
-0.260810225117
0.887745748558
0.256374399535
-0.497025762721
-0.699561275733
1.0
0.113599475492
-0.954380565574
0.133364190759
0.517646035052
0.0723833108788
0.0833936513701
-0.196462899508
0.406698673932
0.351174819339
-0.389300844261
0.380854887899
0.126743567348
-0.360918183115
0.170716431085
0.839062777865
0.136870542929
-0.00110942857599
0.315717182483
0.458322430741
-0.598264432033
-0.0760750497512
-0.452024666492
-0.377946715945
0.350434405893
-0.277511585977
0.40902316759
-0.790689156029
-0.235256203103
0.282128489948
-0.0466326589853
0.0960101964158
0.933027720541
-0.336331332244
-0.064537387262
0.72504044705
0.346574929964
0.210755751284
-0.342574261193
-0.0628049836245
0.312482961882
0.591995722645
0.511739186908
0.204845874209
0.462027095562
-0.154761196518
0.0228350189584
-0.549058363166
0.493438064184
-0.676872683341
-0.149184530644
0.677267321828
0.627151847892
0.842640330778
-0.282212507061
-0.118736663462
-0.692153051542
-0.375561130294
0.269936017468
-0.867120554038
-0.409950644747
-0.153919269175
0.990381027451
-0.053291003619
0.250494164839
-0.108429771779
-0.0433319747023
0.536441585346
-0.0414263518816
-0.323898427073
-0.0269891833705
0.892146411036
-0.0807175490755
-0.0567065402364
-1.0
-0.739274730568
-0.137522245227
0.422932362943
-0.927904940678
0.16638303883
-0.272986234862
-0.745490900645
-0.531071314028
-0.517867592796
-0.341027158682
-0.346803583662
-0.412532524104
-1.0
-0.522076580921
0.05573271459
-0.66513431412
0.653111851136
-0.740611541956
0.745186824636
0.439579329859
0.595798370613
0.0252503322496
0.0789525300387
0.403006122973
0.11493114227
0.00341009720893
0.697821679775
-0.0575600279728
0.531156061975
0.187815155627
0.212879812988
0.367132189303
-0.971739537602
-0.0643447093409
0.541104728347
0.151921295331
-0.86033326756
-0.668130012899
0.261142648193
-0.785709460041
0.529439298922
0.0561742257365
-0.416058243102
0.568092351872
0.27835735127
-0.4921708085
-0.889246522046
0.193958151227
-0.633735042955
-0.375522096285
-0.283304365198
0.314321505666
-0.880971738387
-0.865730252448
-0.944205060634
-0.645959623961
0.0977809254152
0.42715944703
0.244300253423
-0.169033168267
0.858631519518
-0.256101527079
-0.524985970027
-1.0
-0.664825530442
0.354614845179
-0.337552177887
0.354295563225
0.545566397223
0.499302218267
-0.217650658906
0.0482090569266
-0.676050230694
-0.0135968509966
0.717812320473
0.561429756044
0.339649359471
-0.981529605192
0.357037676635
0.833212052723
0.889204487701
0.612119899593
0.833963991755
0.0818373866936
-0.385184633819
0.0699859657768
0.405338189514
0.467743281191
0.209246044927
-0.977265750799
-0.175405603468
0.670170741744
0.0650960463694
-0.746130396032
0.00422743309276
-0.243030385661
0.276361734386
-0.0975896974574
-0.0412454079273
-0.0543434317127
-0.125285450365
0.559751807607
-0.166575864605
0.0724378417402
-0.659720302973
0.499751017
-0.318546071929
-0.296167560307
0.690721068258
0.683046263929
0.436025392418
0.0569851737653
-0.766212630229
-0.772511064154
-0.697352900942
-0.199775216296
0.176969355507
-0.461926129388
-0.386695284141
0.79393493389
-0.299813788612
0.510811540084
-0.0116693994907
0.302372993149
-0.37964577447
0.0365329178815
0.137126591914
0.996166056256
-0.911983239776
0.276717293728
-0.681109071333
0.580233055744
-0.652924449529
-0.50582334094
-0.575456906985
-1.0
-1.0
0.0885440390192
0.185386906161
-0.762408479851
-0.554004258787
0.615392555404
0.837750868197
-0.30299670972
0.460302350337
-0.763866730798
-1.0
0.413180492048
-0.228002807307
-0.999307205546
0.12973901988
-0.464597401546
0.182616134766
-0.279972731866
-0.864386603522
0.346478044053
-0.670954221779
0.933348907356
-0.259213490671
0.701739425351
0.577833711415
-1.0
-0.543639141417
-0.32591788631
-0.699625535937
-0.461566287484
-0.0593469206803
0.0270460104975
-0.879003062585
0.474817229261
-0.97106147053
0.731401440773
-0.708480709048
0.446723652677
1.0
-0.511720416922
-0.741583166963
0.945561139142
0.455993979424
-0.150954462307
0.0309351092359
0.143972577298
-0.279255511327
0.823641987419
-0.130330881092
-0.0872264496194
0.0870254086189
-0.517597437853
0.201496088618
-0.975280204965
-0.319974162972
-0.797819222196
0.779076184115
0.0473026262656
0.0635068377684
-0.127869747381
0.292164552603
-0.304260910045
-1.0
-0.534122789182
-0.764073180698
0.78749555799
0.320465528351
-0.933726096516
0.518221999901
-0.0790135141322
-0.37984532644
0.05325326216
1.0
0.452164375343
-0.24735586252
-0.298149266437
-0.00940046307134
0.110493987772
-0.135469193191
1.0
-0.527437388595
0.214308574819
-1.0
-0.607601073098
-0.237249018721
0.346762115246
0.163908005498
-0.931453263783
-0.022628078971
0.999998703252
0.159418927087
0.184611880866
-0.955829900139
0.245031972304
-0.19982990007
-0.542702642476
0.0080474915743
0.530915279915
0.350766848725
0.772020553394
0.716288581037
0.338954416653
-0.389232346453
-0.153358483238
-0.517706251707
-0.218415936564
0.972164704218
-0.254667103772
0.0595644764867
0.501509053561
0.838056425814
-0.41291179775
-0.523022064885
0.575488730616
0.116483722785
0.46573228862
0.0759526169927
0.592951208034
0.324346472109
-0.0382415666433
0.560201260504
-0.0850275043385
0.358844527657
-0.523147558415
0.744943642521
0.490757854035
0.493206332805
0.86452690714
1.0
-0.092945611211
-0.342043130176
-0.295847296545
0.91979444308
-0.376603759673
1.0
-0.702316604378
-0.136199338909
0.654282436586
-0.782878745523
0.811164544448
-0.489902138794
-0.875259125709
0.684174769196
-0.613041156158
-0.452372549407
0.752629904432
0.172787317444
-0.351850723228
1.0
-0.13709904949
0.385743505602
0.571985802005
-0.20323361781
0.482752888171
-0.671841028053
0.0501413105777
0.0731949534146
-1.0
-0.543427755765
0.249088324747
-0.232736814375
-0.772285057932
-0.200083675182
-0.422749028689
0.75485643697
-0.1677866155
0.242859766321
-1.0
-0.195075533138
-0.640746700001
0.112050069951
-0.699119035965
-0.176313647998
-0.52173016853
-0.739455956838
-0.163387196003
0.3629807494
0.253195132682
0.131966605036
1.0
-0.999758087765
-0.708810505181
0.0355055463103
-0.0881277218679
1.0
0.934834995339
0.0723098054364
0.484980373484
-0.811357835918
0.100782493552
-1.0
-0.586503820228
0.539036131468
0.42009424627
1.0
-0.461735425918
1.0
-0.110119409847
-0.534149548431
-0.611607454774
-0.39083203917
0.263540150133
-0.538621933126
-0.128070870635
-0.294443226026
0.250294963525
-0.370229242803
-0.60711376752
0.207259147206
-0.350880521246
0.435444587451
0.527844478712
0.338275002278
-0.0154466882906
-0.587616072774
-0.150250974254
0.30177816474
0.8794054674
0.93500820126
0.406989497548
0.220985717776
-0.967601869215
-0.526071881488
-0.339548145619
0.441812276994
0.101094601082
0.530130284091
0.182295256845
-0.0949271839609
-0.701347042598
-0.26344733623
-0.379530805504
0.70145043572
-0.232133006138
-0.554825099519
0.17514898811
0.300336740226
0.554105360141
0.841586394454
-0.0830393388663
0.704033571667
0.615614412877
-0.258631498447
-0.587402806155
1.0
-0.695016592192
0.04592261634
-0.0537745558665
0.253946973252
-0.972918014644
0.85490288758
-1.0
-0.0132209821591
0.271929200472
0.512560373209
0.0224491376857
0.498688608352
0.174089359699
0.204738821543
-0.048497739516
0.0523203299053
-0.586318020964
-0.682999007549
-0.026659403091
-0.153387245918
-0.523873419408
0.585909206772
0.885462237236
-0.0352638192399
0.203831007259
0.64385345911
0.827501023569
-0.040040546725
-0.268496477484
-0.428197589823
0.564646114124
-0.0442765791766
0.76479819047
-1.0
0.771196846858
-0.299123399955
-0.664913114365
-0.308051570937
0.392632676744
-0.176619117771
-0.219068804089
0.0582339329503
0.999392679369
0.610553643313
0.592751628917
0.343893484404
0.381826500265
0.852630764729
-0.00850161429242
0.938238523811
0.941938655306
-0.0805134199528
0.344395155058
0.365449559981
-0.817618437923
-0.141677284897
0.166459291735
0.1923537209
0.212077562473
0.348182197988
0.753171562063
-0.46854435044
-1.0
-0.735505841002
0.364678907438
0.908458479079
0.134069075124
0.922066557068
0.1091835065
0.818117300496
-0.39672630674
-0.468766342034
0.135179884939
-0.0394631452333
-0.2704639669
-0.528763918177
-0.441709186486
-0.28204486458
0.103267760023
-0.334125975862
-0.599034658534
-0.12678434048
0.855604660108
-0.557551046221
-0.0704707107995
-0.370521918421
-0.265625759002
1.0
-0.518554379016
-0.582765002938
0.377646778115
0.817631281341
0.155955995821
0.480304926901
-0.651969810026
0.168090833682
-0.335459746054
0.145589377419
0.381333392748
0.0415652242665
0.294357945007
-0.471217806987
0.212202249084
0.3650032327
-1.0
-0.329074922615
-0.249035680594
0.864003314733
-0.1223679088
0.71183702801
-0.691590941442
0.757106114798
0.4231829807
-0.359737045805
0.150263395256
-0.212675437856
0.551318745731
-0.328315013686
-0.38071131902
-0.138773872854
0.78497848782
0.179764989283
0.55311636613
-0.795395519037
-0.02153891838
0.112154861299
0.69877466347
0.0154387783083
0.737133720109
-1.0
0.882059079405
0.428887468375
-0.335566192875
-0.387868642812
0.181247720179
-0.706555410384
0.165784036719
0.113905202258
-0.249231919023
-1.0
-0.557243863058
0.182210739403
-0.630824202896
-0.574428251346
0.807753621274
0.727270591577
0.732779106884
-0.376458351651
-0.0257051202091
0.213143459938
-0.132820446535
-0.993798270693
0.373350166544
1.0
-0.264480170521
-0.243637031581
0.564524351119
-1.0
0.209785437635
0.7521456076
-0.354582597117
-0.733117061761
-0.867604777516
0.914444109087
0.522879387623
-0.571779561524
0.447290643752
-0.522828659945
-0.579547244256
0.0958339699621
0.415101286344
-0.0411901820384
-0.957123536017
0.768143836707
0.0104686008615
0.392345371075
-0.274510976568
-0.368372750197
1.0
-0.913494351589
0.333775696748
0.0339512151607
0.845234695801
0.246541426853
0.74790272929
-0.519450796687
-0.67199949452
-0.346761444101
0.139062698533
0.0248790004101
0.262282202336
-0.576277861365
-0.235036599229
0.336413381839
-0.349295460271
-0.108689530266
-0.0359108216976
-0.371735901404
-0.441864662505
0.878560822032
-0.23153025121
0.170712744536
0.531474415569
-0.331777727876
-0.815318956267
-0.461001234416
-0.483777095124
0.550834104103
0.31639282866
0.785343448368
-0.611816214241
-0.818089956803
0.645937697665
-0.750818534265
0.635502195741
0.307393801299
-0.701736055016
0.593591068279
-0.272403795244
0.489136227187
-0.188966299415
0.908806025737
0.0735550082048
-0.608597638282
0.536280621139
-0.0835176082967
0.0950187300617
-0.430783202347
0.249014283271
0.0158665319935
0.687315289622
-0.287339918257
-0.834497443359
-0.0329447151526
-0.75420114661
0.335803058721
-0.180078856472
0.23362099775
-0.116427464344
0.105141052664
-0.75137555269
-0.214417335001
0.190527690428
-0.331836373726
0.470270807433
0.828897810191
0.621297858841
-0.5813674758
0.282638371355
0.56281030724
-0.852068600092
-0.911136879356
0.637010949189
0.213662704502
0.150026411372
0.692533254821
-0.800514044639
-0.044467234529
0.613306034233
0.089898970829
1.0
-0.176366976822
-1.0
-0.153379089713
0.390742924467
-0.0764952289176
-0.156476363498
-1.0
-0.0451308881454
0.289394603101
0.116195423975
0.792154868999
0.219022231221
0.502166814827
0.289129728887
-0.851826440396
-0.429894930269
-0.848430967197
-0.154501368906
1.0
-0.500767621738
-0.0479249847335
0.881002400473
0.716361695963
-0.885090856866
-0.955570438104
0.645150498614
-0.542855800285
0.36335386434
-0.616555226221
0.0476916068384
-0.407976053903
-0.221764505385
0.604518882286
0.0164448653756
-0.406179690722
-0.0197195515815
-0.0547422518591
-0.4770904399
-0.77094727395
-0.402565694176
-0.763206290434
0.21505739677
-0.148988215811
-0.174779289042
0.96165311213
0.399242128592
0.473441218997
0.263018541071
0.738091308452
0.282129718237
0.411846635081
-0.0612606117217
0.623182417189
1.0
0.847478046014
0.400750353654
-0.41297383334
-0.516144197811
-0.838550108764
-0.0118831741947
0.676673821707
0.212154028209
-0.415687852903
0.225711294135
-0.227033009762
-0.902026144424
0.156046257716
0.15527669634
-0.786569495491
-0.486862430901
0.0548693129991
-0.977172080856
-0.750240178644
0.26497925663
0.340675264524
0.766166845908
0.0223495460182
-0.495903746324
0.514665577715
-0.191388706794
0.460960722729
0.666690781981
-0.556681886064
0.620325513134
1.0
-0.625050846186
-0.708329579252
0.143848653549
0.429667783535
-0.182167924234
0.311014207899
0.408039216357
0.102395979463
0.221726914295
0.653299314499
-0.137610659744
-0.133372861712
0.675625351805
-0.868624722492
0.915129502663
-0.666027104751
-0.383766549142
-0.298750087544
-0.739745111698
0.259111614922
-0.762506982808
-0.537317731835
0.533436104599
-0.356003087367
-0.0306298828254
-0.0686313451623
-0.122024929659
0.44228060639
0.452463855679
0.00902557067904
0.723136108141
0.664978825403
0.158491763055
-0.787643796983
-0.268261125022
-0.236300232671
-0.223762934424
-1.0
0.0794482291626
-0.61552281418
-0.000617433146927
-0.9965666381
0.849201831576
-0.663687428627
0.63060808283
-0.0677353099955
-0.18541566914
-0.706670087372
-0.708354948406
0.579487033511
0.232496676608
-0.386377040564
-0.189298574508
0.49901189453
0.163485638651
-0.303345608329
0.221904554917
0.863092434272
0.696863106596
-0.148148672452
0.117949745804
0.104271415916
0.622829431922
-0.535024020981
0.5969589289
-0.0183280659703
-0.492421748226
0.68210259173
0.245870556429
0.101259961608
-0.694307461775
-0.411071898782
-0.758636476075
-0.126329881779
0.224979225635
-0.294201936872
-0.949260823184
0.0231221249183
-0.833427088127
-0.0944525007869
-0.415467296245
0.0165754819555
0.643419669301
0.425691466101
-0.540144906771
-0.966465913657
0.282423050972
0.344098752086
0.384329666585
-0.619224859591
-0.2061432009
0.56096329109
-0.904466528511
-0.556605231969
0.104450760918
0.485751872264
-0.533370288133
0.956551528468
0.62468072341
-0.161849774888
0.214718101902
-0.393017258056
-0.0882099840521
0.435771854112
0.577991492158
0.419413187191
0.98121624441
-0.00537237136416
-0.281881178765
0.784754434582
0.599596647625
-0.129136153352
-0.779465662238
-0.572181972121
0.610931502535
-0.270851610771
-0.0636669265799
0.708623403979
-0.302639679678
-0.658579258357
0.414285709541
-0.171004183686
-0.494307229334
0.661737652381
0.194116306352
0.240936782068
0.195683366892
-0.376691283178
-0.738882637473
0.471601405161
-0.480292026351
-0.476977106852
0.405968670065
-0.467169490793
-0.680742885522
0.435999166544
-0.279204496831
-0.0676582231404
0.146164409442
-0.605063243227
0.130000415504
0.368031239947
-0.765036353126
-0.778072230693
0.113526835187
0.0771618087007
0.356996063975
0.335275535543
-0.384226405088
-0.299508174948
-0.340089776203
-0.157830098596
0.189204087485
-0.564163185089
0.490199457824
0.289307505578
1.0
-0.559623529316
0.387966953492
0.996207850734
-0.949293824749
-0.959093161368
-0.541416481746
-1.0
0.591716354731
0.55919132607
-0.0613894975479
-0.938825060942
-0.705880859051
-1.0
-0.0718644753008
-0.747304438532
0.689329675163
0.737454861245
0.0280890768612
-0.854469657963
0.976269893543
-0.857156626909
0.110129317443
0.402324554577
0.32009390174
0.237579595363
0.166137239289
-0.882849684091
0.499708381623
0.189319811674
-0.0157325918548
-0.19469082214
-0.00236272761597
-0.633783823306
-0.391771349925
-0.569793976099
-0.325820938467
-0.112485934576
-0.701533828297
0.0819012453258
0.714436547209
0.420748577784
-0.109304917864
0.798751450297
-0.192099106107
0.0224927252717
0.572828369617
0.393772309576
0.0155258119708
-0.505242342298
-0.617725029107
-0.947055412984
-0.0956140469131
-0.55523665624
-0.398497466273
0.857129645901
0.391178093163
0.431067012777
-0.127874667728
0.0560232423458
0.116447918612
0.413967932751
-0.634822318442
0.314503842684
0.6681187239
-0.440087978933
0.761010352897
0.526026990714
0.234968035819
-0.28561307225
0.00121910726102
-1.0
-0.0570630437766
1.0
-0.434611505846
0.56869166544
-0.304832558979
-0.0502989734008
-0.263436627253
-0.082129402147
-0.707910264218
0.808345361764
0.394431004365
-0.346226799557
-0.44242761344
0.194099436347
-0.208250569718
-0.601588383325
0.534282110495
0.292315772389
0.214950122339
-0.739374598428
-0.182807735094
-0.546678496232
0.794186401625
-0.0917573951618
0.989401728816
-0.363320079533
0.343619123149
-0.0840815081167
0.338472948291
-0.300639917456
-0.43477437226
0.176799780986
0.0996560302426
-0.530320652452
-0.256829542853
-0.735334645396
0.998010458649
-0.512079237473
-0.180968866063
-0.402020442983
0.77010570711
-0.0573139406903
-1.0
0.141737872953
0.831424888755
-0.0494648295688
-0.0769686032914
0.101524422686
-0.304162054765
0.0313733070084
-0.747973546816
-0.690647879866
-0.454771695593
-0.980140323061
-0.33802581757
0.912277875918
-0.740897119622
0.819858406328
-0.555030682363
0.925504201946
-0.0191419424857
-0.452558714511
0.67927406892
-0.182666329159
-0.219764243307
0.359314824813
0.590556482053
-0.449800073869
0.265875751162
0.50193003533
0.0256641811265
-0.610200512938
-0.226743690501
0.190966116356
-0.00678171922631
0.461899743275
-0.270261788285
-0.150485217489
-0.62825868792
0.984796529445
0.516084217674
-0.260239023854
-0.529546982512
0.406202705211
-0.0126137351128
-0.494573675811
-0.222140751241
0.254468818477
0.92779535011
0.0556112987745
0.982444966764
-0.263641696624
-0.720028658727
-0.288460545686
0.866873305397
-0.0454614634712
-0.411827182665
-0.475037306952
0.935804246617
-0.95742622477
0.277495980424
0.555312320953
-0.784602758875
0.142158438508
0.397041684755
0.368307938535
0.188821784776
0.578889664547
0.315710175464
0.367224347433
-0.125951847392
0.873414554959
1.0
1.0
0.301288631879
-0.20773207946
0.252307945196
-0.0962374604068
-0.113390806625
-0.119401259443
1.0
-0.0719912847457
-0.247120232491
-0.384236012285
-0.497112794625
0.302569133004
-0.145851934699
0.97080954769
1.0
0.728141735802
0.0225005004641
-0.484265999859
-0.133514373036
-0.155397669638
0.0713770379236
-0.643274070116
-0.97693082359
-0.0627939314345
-0.0623775882448
0.334948871711
0.372687872
-0.702210448131
-0.711372176233
0.117885866081
0.225865376424
-0.645717308041
0.0923842145155
-0.561961897953
-0.804302699148
-0.14805892862
0.464763069807
-0.213262698408
0.391135957879
-0.0584398578111
0.0340842837671
0.51527860964
0.209874832333
-0.233513600556
-0.125388670512
-0.880255096996
0.227420360562
-0.122940683841
0.768427538275
-0.781412452226
-0.23423963698
-0.0929088574718
0.613714881636
-0.861251643156
-0.453792005964
0.650047485785
-0.764019417319
0.58239864258
0.993050614338
0.501448486917
-0.233560158089
0.339192481492
0.215093589065
0.359050926894
-0.212758542795
0.113120713457
0.993262147251
-0.173668114779
-0.727135464487
0.711502794508
0.14957043877
0.180530864879
0.587330346603
-0.527533686
0.35524126513
-0.105124687177
0.0867336454593
0.355051254869
0.180243083732
-0.864438996705
-0.87207522607
-0.732229695637
0.848244488922
-0.201914579848
0.123737478538
0.13012087678
-0.635032428916
-0.109550026802
-0.126354798473
0.579254562475
0.342213976952
0.66215024881
0.362754636747
0.997577316239
-0.294158298662
0.53360881585
0.91383829276
-0.191696084471
0.0734688829282
0.460297798827
0.260560153799
-1.0
-0.54074763056
0.0456231993991
0.327971149415
-0.76408240249
-0.0106043420167
0.565342861633
0.248557724462
0.0323231757011
-0.454543466526
-0.347047703145
-0.455270833417
0.161100735048
-0.246583063172
-0.39455124911
-0.910062021921
0.437047081199
0.290870440318
0.0736404150097
-0.47922001546
-0.391579837856
0.072121789034
-0.367310766204
-0.208070471783
0.256191149436
-0.954463553064
-0.234257002946
-0.94713524326
0.803677494264
-1.0
0.10807014278
0.153015079555
0.594177100178
0.730219078454
-0.449894637923
0.0118315953215
0.541815946519
-0.00981262327578
0.408364744274
0.322334425315
-0.853778969901
-0.0783149636947
1.0
0.714479684733
0.923110671162
0.0200131994408
0.34055843088
-0.248497190054
-0.0662124400736
0.356271481279
1.0
-0.0108265863191
0.0952168582221
-0.124998376755
0.460643290655
-0.101373496704
-0.0394825555544
-0.669735041721
-0.483887871346
0.906811880693
0.63548787662
-0.239892477957
0.441297040929
0.6821884667
-0.288917216803
0.652799690702
0.995952962618
0.915121663489
-0.541724500858
0.13452346642
0.105612611204
0.258743754407
-0.862962896496
0.860532616396
0.261674726201
0.734026974734
-0.467362405835
0.342802864618
0.333219970472
-0.994202101043
0.25961031045
-0.325844388386
-0.871342414161
-0.99920558106
-0.196281234294
-0.250219942908
-0.181844786695
-0.160590534614
-0.376454132595
0.588033837869
1.0
0.691792125216
0.0892261759304
-0.863838731871
0.493781195563
-0.00101560129175
-0.688402890214
-0.240872430253
0.378550621791
0.151067673602
-0.107321347994
0.874968773201
0.391845358455
-0.176561402362
0.816160511691
0.536516059545
0.165048803592
-0.0830574610999
0.211292349736
-0.478905984204
0.215927553824
0.323878992204
-0.747840915279
0.375936430069
-0.25178450606
0.113538026112
-0.200198039069
-0.161990555314
-0.796598572851
-0.529755619749
0.0114772912123
0.451193224365
0.484246289825
-0.99976983534
0.414426519049
-0.497574666905
-0.268176553643
-0.32999612214
0.128513067192
-0.866287659981
-0.600050758088
0.751481067609
0.861351826663
0.139336891516
0.860398932552
0.0632546377971
0.452918440702
-0.404231974561
-0.126130816923
0.350574885741
0.276768347409
0.109894944281
0.934133426727
-0.975275290608
-0.984239500128
0.272624997145
-1.0
0.87636577965
-0.651581559528
-0.367471770646
-0.896222625699
0.631253284677
-0.0106064135662
0.512052520064
0.434957116478
-0.0326237773435
0.0949800907772
-0.553268838959
0.107700551506
0.283148898465
-0.554690993923
0.25879081249
0.00960183568865
-0.964154976096
-0.603259333114
-0.312468996857
0.601080995232
-0.472432952633
-0.859011789491
0.0922858734038
-0.295912065671
0.223468316458
-0.597743041105
0.111585462288
0.676275121654
-0.407360062828
-0.801161632447
-0.607732944249
-0.2399689463
-0.0104015725058
0.271337412838
0.177745842138
0.0751057808574
0.1847119085
-0.213878374343
-0.884052676339
0.871813620602
0.225342915865
0.251632440543
0.0425978529468
-0.0738211871294
-0.694399779232
-0.49517967692
-0.181985894263
0.892529745772
-0.175281243466
-0.135282035155
0.0305813668684
-0.426324280231
-0.909158649547
-0.879805722344
-0.715731692018
-0.186045681143
-0.773311390959
0.101613078145
-0.290751635834
-0.104608400879
-0.276073324624
0.0752074687227
-0.213420041946
0.663050227384
0.598019203791
0.651948404653
0.340059423505
0.288504836625
-0.447172988928
-0.195184982025
0.64993298868
0.0982882851992
-0.291484562245
0.362487098567
0.723316828716
-0.965834043555
-0.449303961691
0.341662138886
0.117299024675
0.267715897873
0.0135830411726
0.377685436859
-0.444357907797
-0.44262159354
-0.183181210073
-0.412383292739
0.441638101562
-0.839145776555
0.40183713948
-0.466910422174
0.283137265148
0.164957379845
-0.343769867458
0.544691131776
-0.425422754831
-0.670828304858
0.57418840827
0.0158672735066
-0.758844127728
0.572885185857
0.172765485525
0.0273424469796
-0.288939116721
-0.259975107954
0.315750380746
-0.778366143233
0.0132348337965
-0.0856686444685
-0.303213766477
-1.0
0.317015689689
0.138550207292
1.0
0.410565712071
0.409077083488
0.23642312243
0.783825059267
-0.272284239608
-0.16544850079
-0.0568020786175
-0.0566570087935
-0.282970156338
0.691817105936
0.4476644876
-0.199802948133
-0.613097253434
-0.177678060764
-0.824890038129
-0.680030198932
0.36167914116
-0.997184278424
-0.643521869475
-0.323200467493
0.277051618701
0.547864134401
-0.0431352339338
0.667184085062
0.200086458603
-0.548417855446
-0.0711544682954
0.42498224004
-0.494315778496
-0.484005431618
0.494147305012
0.375600305544
0.187148596631
0.134308657147
0.309617210437
-0.505043877853
-0.411592782125
0.0839494789047
0.559820156091
0.510250991297
0.631151279778
-0.533985637295
-0.996174536298
-0.369221122281
0.347042184902
-0.192072775144
-0.652517640045
0.102466650365
-0.954162642726
-0.505397142544
-0.286659815257
0.538095359028
-0.56894765233
0.11959128011
-0.212934550679
-0.860330578257
0.417243814151
-0.132466904091
-0.17894390605
0.998680730622
0.341506795291
-0.140987443141
0.310754421176
0.0117500935412
-0.184000217493
-0.0409035532754
0.595477884223
-0.6691251093
-0.489333264232
0.167312210467
0.582212953074
0.0856719530068
0.670246457429
-0.929376170981
0.497486611217
0.427315513766
0.0424826713248
0.00372700993719
0.0719374468661
-1.0
0.135575161744
0.788243488479
-0.113376080513
-0.586775706839
0.162134222318
-0.279442876645
-0.639890799916
0.483232839187
0.391261606723
-0.637563351382
0.746715096283
-0.444232351762
-0.307920636406
0.718295903182
-0.61260055498
-0.482158907223
0.54049375172
-0.619910167322
1.0
0.288874576341
-0.49474880304
0.697307463537
-0.00264415937212
-0.43850626549
0.397101926922
-0.0929917822552
0.909402757637
0.322942340335
-0.477832437582
0.0963132151683
0.140500115469
0.00533754140658
0.132278646462
0.161958869208
-0.357461760605
0.154200922803
0.38971928533
-0.359120803098
0.532635705442
0.332546554994
-0.682008406968
0.489094415781
0.884072504098
0.198184880463
0.873863401571
-0.393486040636
-0.45963285044
0.816587804865
0.695462129101
-0.557574207123
-0.0556654057985
0.619507334102
-0.0925536324927
0.131508473041
0.577912254491
-0.702457172019
-0.153281347798
0.407372829022
-0.108804591443
0.548528490615
0.0340639926432
0.226878895942
-0.468877085075
0.22453862872
0.794304123284
0.732857090532
0.283017780806
-0.311985552675
0.779670812216
-0.00106145198984
0.335453229196
-0.145196093354
0.787093556912
1.0
0.898875406491
-0.809957840446
-0.0892349777138
1.0
0.680001826208
-0.250010000331
-0.496918821693
0.325739737516
-0.26071786783
-0.223168307984
-0.572443212406
0.64817715853
-0.396973199125
-0.998309043993
-0.0238119035029
-0.27788604536
0.934539321238
-0.59314907186
0.919564143697
0.553519097841
0.413214452421
-0.381090732343
-0.200748297229
0.998695841729
-0.0621019030165
0.137723641242
-0.511355162069
-0.536238401815
-0.631016175674
-0.798976195544
-0.0845461779768
-0.589800401965
-0.968077461705
0.011385577741
-0.640113931008
-0.467549488104
0.541444702922
-0.00776032572242
-0.0850404394225
0.307631941682
0.103673312554
0.329249106672
0.795938090622
0.391945742355
0.546331228762
-0.117175962015
-0.697801789627
0.0290633387925
0.699050604655
0.488151814941
0.518200291573
0.331337346592
-0.471680585732
-0.137186432098
-0.419147257275
-0.194165510193
-0.154960566445
-0.390359802994
0.528379529562
0.679529629462
0.40894200141
-0.533389734596
-0.821654256879
-0.856962369652
0.247940406333
-0.48862947826
0.409825629234
0.250400224597
-0.174324725711
-0.17376464886
-0.0357377159142
-0.895275775601
0.164972908433
0.591657828686
0.510965276205
0.305422666281
-0.944151171965
0.66980897519
0.616165212782
-0.51118771
-1.0
-0.310953352354
0.018164840126
-0.134391470334
0.545467611166
0.0653967009912
-0.792524928556
-1.0
0.0219125660498
-0.415905587058
-0.272768362121
-0.260007865686
0.719901822069
0.710297155297
-0.389233747695
0.525655328621
0.573725807632
0.637065483382
-0.639457473222
0.282741403857
0.887718288929
-0.333309178775
0.615958618412
-0.136991296177
0.036428389506
0.786568353007
-0.131292601275
0.569558805708
-0.829811349158
0.132725592466
-0.904283013229
0.826640555449
-1.0
-0.145715138578
0.515091746929
-0.649325915396
0.211323930886
0.0255093815779
0.205743841243
-0.958839442172
-0.486482489833
-0.162216414401
-0.435361078165
-0.735845177776
-0.622540572946
-0.291754349492
-0.111057324903
0.977557699768
0.704966423828
0.275439863381
-1.0
-0.590421425845
-0.196000789947
-0.669610504828
-0.134282634062
-0.402244564975
-0.276608287738
-0.534548394128
-0.396165681094
0.302617364945
0.939639297684
0.0934046989658
0.400401078935
0.830785666388
-0.751647057811
-0.1934450905
-0.192146955691
-0.893284147818
0.825414944411
0.473233478504
0.585088212675
0.778068736913
0.290900944232
0.670887899353
-0.35270882461
0.958895984707
0.257695197586
-0.164862419327
0.230686333005
0.142205995216
-0.223457715683
0.500967755349
-0.497467276856
-1.0
-0.567603672214
-0.820405802474
0.146884507795
-0.512312093066
-0.0817537646186
0.076523758611
-0.4455677407
0.252871390745
0.736727162797
0.0102044451545
0.417263280734
-0.776421535165
0.375701679863
-0.41877904434
0.112823815693
-0.607183133551
-0.748271900512
0.690831046034
0.299748527641
0.874810669196
-0.527944011031
0.0712285072639
-0.370090007043
0.441473693818
0.443335477296
-0.613443868796
0.319226865756
-0.557422143936
0.983887611455
-0.281220252053
-0.524486104507
-0.428384591096
0.0404092363047
0.191023550692
-0.498591596208
0.0329278576564
-0.47906446982
0.337495124225
0.0772591570315
-0.516960633574
0.724644915946
-0.648481504917
-0.526335608029
-0.24452453199
0.918093052029
-0.225208876982
0.191411187281
0.37257098948
-0.146734633207
-0.691488537122
0.754718134848
-0.933201064979
0.546802044206
0.308460628953
-0.0489698071317
-0.547054779157
-0.0804606658566
-0.710851352835
-0.798607333996
-0.670295963564
-0.337150711659
0.889056165597
0.0301695816516
0.931370563781
0.143621054876
0.188539330732
0.556945486274
-0.557960919189
0.465754179874
0.651222064332
0.309853151777
-0.143547466913
-0.564385837923
-0.0303992843164
-0.964221878371
-0.392608547166
-0.979014723736
0.440190571064
0.136916795609
0.831675141021
0.210713342113
1.0
-0.113648874473
-0.056815193763
0.595830718619
0.41797296354
0.480578982645
0.824563829923
-0.423167809957
0.388733023399
0.3063977725
1.0
0.567006929183
0.925751795448
0.047300445227
0.102017529072
-0.634846611821
0.522434058579
-0.531795553611
-0.282552343732
-0.299064071373
-0.722608373338
0.0313148845114
-0.13078628693
-0.793131537095
0.0214598186365
-0.614515796735
-0.128434583658
0.260655470137
0.00259208279698
0.443889230769
-0.216677834701
0.383171471289
-0.781515226243
1.0
0.906245830637
0.999994662116
0.500001917331
-0.673459739735
-0.623043059958
0.0306407930326
-0.0282704396827
-0.0879148382238
0.270540317724
0.966759455956
0.411642979826
-0.37700598939
-0.9298868762
-0.165273582143
0.0580426609327
0.0730790505476
-0.343216450362
0.375533055362
-0.82640762311
-0.647748583521
0.916758008524
-0.690704259172
-0.21411266235
-0.514603509879
-0.706070067602
0.936872094863
-0.0143253938008
0.115751923332
0.57554070507
0.57405071803
0.703712901922
-0.946702094787
0.61282652262
0.516655161212
-0.782912922419
0.54455813183
-0.339382314219
-0.205351050677
-0.490801022491
0.820225961003
0.728260871557
-0.227455722685
-0.76399384261
-0.145290414866
-0.395008504853
0.302217267025
0.202347726696
-0.570850710344
0.489679204596
-0.600198296211
-0.0854287823702
0.155008290718
0.579632339796
-0.139060928508
0.493672294123
0.0750346863047
-0.246068842774
0.836611455124
-0.150721012294
-0.370487915412
0.337041482705
0.194300542286
-0.174884679681
0.894175769128
-0.662515458031
-0.453705460629
0.836220441255
0.119340417656
-1.0
-0.377853766749
0.385159818442
0.523911751101
-0.620262686744
0.103042027445
0.333824440439
0.311607017436
0.0301081037169
-0.169874114081
0.143845218697
-0.999218972417
-0.943795222246
-0.051541284424
0.216432464006
0.337743582416
0.221894390165
0.0170267035849
-0.297802843821
-0.490089279036
-0.540660848309
-0.87554858012
-0.58744428108
-0.0779283909765
-0.726828560935
0.286738417749
-0.410283883281
0.212297205026
-0.116869968228
-0.333371424912
0.0740486629776
-0.474371729953
-0.418433886676
-0.583918100478
-0.234448509651
-0.621197995334
0.777022612085
-0.796948750545
-1.0
-0.0566908920395
-1.0
-0.579064350874
0.546799351349
-0.892025765185
-0.204936699924
-0.147710101275
-0.251130454412
-0.388539829191
-0.358034942369
-0.0151381815463
0.722165260824
0.268151640318
-0.334715266633
0.0529726447636
0.243724730748
-0.640433493987
0.0117557083041
-0.416264957248
0.49065158981
0.68762293046
0.656196555702
-0.450487003865
-0.420006021477
0.238476578673
0.271331406851
0.316076209792
0.300354348053
-0.513368488414
-0.696086111925
-0.616980805489
0.113890467713
-0.957349664713
-0.490709401614
0.157392959565
-0.683632598596
0.765153748378
0.780154530108
-0.999577913971
0.808849736706
-0.259309140171
-0.819894669
-0.156308770026
0.618870818574
0.510959404015
-0.50726005664
0.08822874386
0.108530947743
0.861997686224
-0.440949749216
0.81190447996
0.0032566676983
0.274911435449
-0.338659128757
0.795456844594
-0.724653514235
0.0475371505885
-0.713397647135
-0.0764700324981
-0.67179077684
-0.143358243045
-0.827812406528
-0.450189949155
-0.652390730103
-0.172384122561
-0.500514760756
0.985616443348
1.0
-0.251081435131
0.311794448396
-0.565596911087
-0.508467930202
0.592992674239
-0.480694148589
0.477405552615
0.59476952169
-0.69987433523
0.665623416101
0.596568697089
-0.839078768133
0.604777753089
-0.141644156969
0.377563525864
-0.622159689234
-0.634115834898
0.546562604657
-0.57784480866
-0.237450102121
0.854406422673
0.990667686667
0.184198416184
0.221208053394
-0.143577250784
0.140584252641
-0.272868713938
0.27059290079
-0.0483731505412
0.130941278282
-0.462738373808
0.0849066546542
0.0747272688915
-0.398820371246
0.0934393030609
-0.142698784601
0.452253540952
-0.263380654949
0.22320345038
0.142144571114
-0.0880229605817
1.0
0.401591977218
0.260824297245
0.552015495626
-0.996614547625
0.0382769912335
0.846740225967
0.453038178878
-0.73348012859
0.773814574465
-0.687084899679
-0.156946915964
-0.25602118893
-0.607272908362
0.714738432958
0.305999262183
0.334903589434
-0.0183875472697
0.618993108492
0.464122576209
0.933699005889
0.33281314203
0.405640705258
-0.00426237434008
-0.258036830813
0.252643335255
-0.939226545015
0.886377302894
0.735304836069
-0.834647468736
-0.837027011315
-0.590684512834
-0.407679479508
0.204807793326
-0.615122993824
-0.671080467432
0.639191863605
-0.998143335413
0.706536312505
0.323211260181
-0.486207404175
-0.246578566545
0.841204208082
-0.659595147096
1.0
0.658147230684
0.0772153710228
0.348455968938
-0.257857228028
-0.508499708433
0.991858848362
0.308210993574
-0.841786963218
0.151690184209
0.644996217141
0.395297971826
-0.214751129956
-0.0829053832386
0.979257691302
-0.941696066299
0.36980481276
0.238583742968
0.428188693685
-0.510346430478
-0.171264414368
0.47858958888
0.225241621724
0.490149322223
0.132098954718
-0.832781848017
-0.0743042931837
-0.330336341317
-0.557431443978
-0.383401419447
-0.758517828138
0.871303529309
-0.603205549732
0.391037354213
0.405421743231
-0.472462162194
-0.24493410134
0.294487281189
0.69562577385
-0.56359008379
-0.839035696531
0.0840219984261
-0.0557771009903
0.508226744203
-0.231647843315
-0.309629120461
0.752083624436
0.589558959661
0.0758869749947
-0.151811737221
0.364424969129
0.949769000618
0.752445845327
0.746068740086
0.354221583566
0.734044250033
0.358245557064
-0.782215014163
-0.652170674658
0.370842108299
0.197632353947
-0.394609740066
0.791390962407
-0.0101053136942
0.614883194227
0.64918839758
0.681123385445
0.222551464191
-0.583946546406
0.118580219632
-0.616465054055
0.321821146065
0.652800363972
1.0
0.629628070296
0.208177695857
-0.441387031472
-0.174495545109
0.83103253198
-0.661719574125
0.649751047508
-0.652608150094
0.500403244512
-0.319262161495
-0.53051384888
0.596165089157
-0.271336027411
-0.401933669994
-0.428598404802
0.108607655813
0.561859434658
0.48691437141
-0.0892235861955
0.554414851537
-0.181858155508
0.648683736838
0.739672162302
0.395373378115
0.435645450785
-0.480579980261
-0.630091151998
-0.799579453093
-0.796950955443
-0.413958633047
0.112699952721
-0.139227761932
0.19671218196
-0.064832349901
0.532257493334
-0.120476007259
0.998990503787
-0.0594632403112
-0.983668512339
-0.646718771381
-0.950558392891
0.659986964721
0.632164991395
-0.55932553607
-0.160933763603
0.360706895209
0.178613502879
0.318517646571
0.99987928647
0.60066956844
-0.753027541798
0.394107865072
0.771825922184
0.210813982282
-0.490574791697
-0.502760496024
0.0035944292207
0.0106117098047
0.514112000037
-0.376858986494
-0.00603709708586
0.812789442777
0.256989750911
0.772337084846
-0.559180368976
0.327799343417
-0.0770546082721
0.709922912263
-0.0323795602766
-1.0
0.100441844087
-0.361775521442
-0.305437593869
0.78138387832
-0.161096827969
-0.538223048814
0.159926225476
-0.847639294095
0.433690454802
0.691653528901
-0.577916569524
1.0
-0.35262226127
-0.252235133881
0.373025853528
-0.17113651095
-0.395658798102
0.311900080442
0.835984417049
0.237764408621
-0.683229648418
0.395237041376
0.137257252301
-0.593188809743
0.553786188982
0.661101733859
0.258709890835
0.694596371832
0.289695966164
-0.114068341062
-0.999667371966
-0.153427832636
0.0944409498061
0.240279853297
-0.840749879153
-0.236457393725
0.594916986211
1.0
-0.798230721839
0.256427951843
-0.650679968726
0.230997463441
-0.0209356369243
0.602751794706
-0.381088901985
-0.436759560265
-0.536590745773
0.211771356823
0.187437772522
-0.894088487503
0.187901680044
0.632974776303
0.749956787112
0.283397207758
1.0
0.858553868167
-0.388170213125
0.779551250846
-0.501695159717
0.491979038778
-0.101744707284
-0.459539315721
0.227463587947
-0.46821928763
-0.638455579675
0.754493446787
-0.628021418384
-0.393682319976
0.383738814453
0.0361038911591
-0.0453378223925
0.508736358629
1.0
-0.488499673852
-0.407422174715
0.811550490773
0.879066490504
0.985673556649
0.662097377179
-1.0
-0.323930862096
0.835671373863
0.447657793208
-0.877229148358
-0.125944933919
0.947424868795
-0.459595688855
-0.377166683287
0.00220475157554
0.14827520702
0.270398195042
-0.740136788031
-0.497841825623
-0.184000758231
-0.00759879540806
-0.404082412934
-0.129145001615
-0.103860777384
-0.193962575854
0.129866258564
0.913527262125
0.633438289263
-0.0672225948634
0.992474740154
-0.0865817680318
-0.51618680877
-0.99656601066
-0.826523001883
-0.612179325168
-0.7502097498
0.551255060254
-0.435087384189
-0.957537388046
0.389324044524
0.750398559947
0.684783546292
-0.411105988546
0.0394918315835
-0.0149454240773
0.604877745441
0.340189693463
0.172972984236
-0.785241370158
0.665300969576
0.00462915477416
0.528337743571
0.70715313997
-0.648521228864
0.331576349953
-0.454592302118
0.126552258473
-0.847660221425
-0.886260530171
0.267826258744
0.97422397634
0.416194016902
-0.495621888987
0.178108008823
0.72255598173
0.209079411792
-0.121683297022
0.194113738999
-1.0
-0.05776430356
0.534384720101
-0.704971643922
0.0120927296446
0.97167044119
0.00197728435388
0.290083473885
0.489991257299
0.61959336295
0.759049430173
0.386969751718
-0.449637181456
-0.14039642434
0.334497744115
0.818418321875
0.106227802796
0.049305550261
-0.197057082543
-0.839683497897
0.187470505351
-0.653280282235
-0.659861019287
0.431585043559
-0.332684471555
0.356101439817
0.419728088526
-0.620847280761
-0.916247750702
0.662880854179
0.101137093261
0.207194000327
-0.453450575551
-0.391788447293
0.342767352599
0.737999735909
-0.138206428199
0.13784579533
-0.401415811712
-0.634377885155
-0.485805590325
1.0
0.0926417260132
0.112660262742
-0.0160814133094
0.673243436636
0.454007176577
-0.378400787803
0.565094657031
0.547473176037
0.657979871103
0.521669133365
0.345389675175
